encog,BasicNetwork,java,3.1.0,1,1385027906811
[BASIC]
[BASIC:PARAMS]
[BASIC:NETWORK]
beginTraining=0
connectionLimit=0
contextTargetOffset=0,0,0
contextTargetSize=0,0,0
endTraining=2
hasContext=f
inputCount=10
layerCounts=2,11,11
layerFeedCounts=2,10,10
layerContextCount=0,0,0
layerIndex=0,2,13
output=0,0,0,0,0,0,0,0,0,0,0,0,1,0,0,0,0,0,0,0,0,0,0,1
outputCount=2
weightIndex=0,22,132
weights=-0.3725823726,-0.0016637009,-0.3916981056,0.2843924582,-0.7569368486,-0.1736667653,-0.263034033,0.9647801006,0.4536535105,-0.4119236109,-0.3457167059,-0.340869462,0.4254535822,0.8933113967,0.8789141918,0.0353533386,0.7786229453,0.494494703,0.5943612413,0.4471475951,-0.5922502269,0.4651937861,0.386438704,-0.654157991,0.3713374406,0.5974540523,-0.3475433116,-0.8105299011,0.6211858177,-0.238967337,0.7904885998,0.1733835617,-0.3014102684,0.713879527,0.2317991148,0.4440291518,0.5169526063,-0.8370866505,-0.4809271841,-0.6425871001,0.3648987695,0.3636746345,-0.731100101,-0.3185575091,0.6885336134,0.6233079442,-0.1372428092,-0.4269490627,-0.2600883342,0.4737562061,0.7379023693,0.6773310033,0.9891655762,0.8990782732,0.1652534677,0.6322859306,0.3236985983,-0.4435930046,0.306207524,0.0249379019,-0.534651772,-0.6142977308,-0.3944554802,0.6243029539,0.4265067683,0.5563827887,-0.807287361,-0.365816247,0.7178691578,0.5159342828,0.6445656874,0.7003075778,-0.9598821937,-0.0833820349,0.6655590505,0.5624460689,0.9945618091,0.0327598818,0.3639615274,-0.8527001692,0.0996672141,0.0626752407,-0.1690868677,-0.1637451339,-0.936052721,0.3008209759,-0.9125497918,-0.0605527188,0.7461491748,-0.2251270724,-0.1243039391,-0.0819275782,-0.6798118618,-0.5048446854,0.1846263798,0.259663076,0.5511159449,0.8635670459,-0.596939484,0.9983205781,-0.6092008119,-0.016333211,0.2158802965,0.7368968673,-0.8625102145,0.4250406701,0.5702122929,0.5358906895,-0.2948553998,0.9276846689,0.8518236307,0.7524283546,0.4262687497,-0.0558334815,0.6527683874,-0.7348815374,0.8022742914,-0.3564650233,-0.9028534046,-0.9579779864,0.1890590943,0.0619932239,-0.3371739386,-0.5648246602,-0.2570757436,0.5014558522,0.0988680686,0.721577234,0.2842611469,-0.0175476919,-0.3986737801,0.5013390513
biasActivation=0,1,1
[BASIC:ACTIVATION]
"ActivationTANH"
"ActivationTANH"
"ActivationLinear"
